digraph Tree {
node [shape=box] ;
0 [label="X[0] <= 0.5\ngini = 0.499\nsamples = 12000\nvalue = [6258, 5742]"] ;
1 [label="X[161] <= 1.5\ngini = 0.463\nsamples = 8002\nvalue = [2911, 5091]"] ;
0 -> 1 [labeldistance=2.5, labelangle=45, headlabel="True"] ;
2 [label="X[144] <= 1364.535\ngini = 0.384\nsamples = 224\nvalue = [166, 58]"] ;
1 -> 2 ;
3 [label="X[137] <= 0.006\ngini = 0.313\nsamples = 185\nvalue = [149, 36]"] ;
2 -> 3 ;
4 [label="X[23] <= 31.937\ngini = 0.279\nsamples = 179\nvalue = [149, 30]"] ;
3 -> 4 ;
5 [label="gini = 0.254\nsamples = 174\nvalue = [148, 26]"] ;
4 -> 5 ;
6 [label="gini = 0.32\nsamples = 5\nvalue = [1, 4]"] ;
4 -> 6 ;
7 [label="gini = 0.0\nsamples = 6\nvalue = [0, 6]"] ;
3 -> 7 ;
8 [label="X[113] <= 0.064\ngini = 0.492\nsamples = 39\nvalue = [17, 22]"] ;
2 -> 8 ;
9 [label="X[92] <= 1.112\ngini = 0.5\nsamples = 33\nvalue = [17, 16]"] ;
8 -> 9 ;
10 [label="gini = 0.485\nsamples = 29\nvalue = [17, 12]"] ;
9 -> 10 ;
11 [label="gini = 0.0\nsamples = 4\nvalue = [0, 4]"] ;
9 -> 11 ;
12 [label="gini = 0.0\nsamples = 6\nvalue = [0, 6]"] ;
8 -> 12 ;
13 [label="X[103] <= 50.577\ngini = 0.457\nsamples = 7778\nvalue = [2745, 5033]"] ;
1 -> 13 ;
14 [label="X[25] <= 171.596\ngini = 0.452\nsamples = 7509\nvalue = [2593, 4916]"] ;
13 -> 14 ;
15 [label="X[48] <= 1.31\ngini = 0.451\nsamples = 7465\nvalue = [2561, 4904]"] ;
14 -> 15 ;
16 [label="gini = 0.444\nsamples = 6619\nvalue = [2201, 4418]"] ;
15 -> 16 ;
17 [label="gini = 0.489\nsamples = 846\nvalue = [360, 486]"] ;
15 -> 17 ;
18 [label="X[102] <= 64.832\ngini = 0.397\nsamples = 44\nvalue = [32, 12]"] ;
14 -> 18 ;
19 [label="gini = 0.213\nsamples = 33\nvalue = [29, 4]"] ;
18 -> 19 ;
20 [label="gini = 0.397\nsamples = 11\nvalue = [3, 8]"] ;
18 -> 20 ;
21 [label="X[19] <= 41.578\ngini = 0.492\nsamples = 269\nvalue = [152, 117]"] ;
13 -> 21 ;
22 [label="X[2] <= 0.5\ngini = 0.388\nsamples = 133\nvalue = [98, 35]"] ;
21 -> 22 ;
23 [label="gini = 0.229\nsamples = 76\nvalue = [66, 10]"] ;
22 -> 23 ;
24 [label="gini = 0.492\nsamples = 57\nvalue = [32, 25]"] ;
22 -> 24 ;
25 [label="X[88] <= 1.142\ngini = 0.479\nsamples = 136\nvalue = [54, 82]"] ;
21 -> 25 ;
26 [label="gini = 0.436\nsamples = 115\nvalue = [37, 78]"] ;
25 -> 26 ;
27 [label="gini = 0.308\nsamples = 21\nvalue = [17, 4]"] ;
25 -> 27 ;
28 [label="X[57] <= 42.621\ngini = 0.273\nsamples = 3998\nvalue = [3347, 651]"] ;
0 -> 28 [labeldistance=2.5, labelangle=-45, headlabel="False"] ;
29 [label="X[146] <= 2.5\ngini = 0.205\nsamples = 3394\nvalue = [3000, 394]"] ;
28 -> 29 ;
30 [label="X[110] <= 0.011\ngini = 0.454\nsamples = 221\nvalue = [144, 77]"] ;
29 -> 30 ;
31 [label="X[58] <= 20.88\ngini = 0.5\nsamples = 88\nvalue = [44, 44]"] ;
30 -> 31 ;
32 [label="gini = 0.46\nsamples = 53\nvalue = [34, 19]"] ;
31 -> 32 ;
33 [label="gini = 0.408\nsamples = 35\nvalue = [10, 25]"] ;
31 -> 33 ;
34 [label="X[159] <= 3.5\ngini = 0.373\nsamples = 133\nvalue = [100, 33]"] ;
30 -> 34 ;
35 [label="gini = 0.322\nsamples = 124\nvalue = [99, 25]"] ;
34 -> 35 ;
36 [label="gini = 0.198\nsamples = 9\nvalue = [1, 8]"] ;
34 -> 36 ;
37 [label="X[132] <= 0.011\ngini = 0.18\nsamples = 3173\nvalue = [2856, 317]"] ;
29 -> 37 ;
38 [label="X[10] <= 3.33\ngini = 0.109\nsamples = 2140\nvalue = [2016, 124]"] ;
37 -> 38 ;
39 [label="gini = 0.107\nsamples = 2137\nvalue = [2016, 121]"] ;
38 -> 39 ;
40 [label="gini = 0.0\nsamples = 3\nvalue = [0, 3]"] ;
38 -> 40 ;
41 [label="X[79] <= 1.233\ngini = 0.304\nsamples = 1033\nvalue = [840, 193]"] ;
37 -> 41 ;
42 [label="gini = 0.265\nsamples = 865\nvalue = [729, 136]"] ;
41 -> 42 ;
43 [label="gini = 0.448\nsamples = 168\nvalue = [111, 57]"] ;
41 -> 43 ;
44 [label="X[144] <= 1502.545\ngini = 0.489\nsamples = 604\nvalue = [347, 257]"] ;
28 -> 44 ;
45 [label="X[27] <= 13.219\ngini = 0.5\nsamples = 454\nvalue = [228, 226]"] ;
44 -> 45 ;
46 [label="X[3] <= 1.912\ngini = 0.325\nsamples = 49\nvalue = [39, 10]"] ;
45 -> 46 ;
47 [label="gini = 0.064\nsamples = 30\nvalue = [29, 1]"] ;
46 -> 47 ;
48 [label="gini = 0.499\nsamples = 19\nvalue = [10, 9]"] ;
46 -> 48 ;
49 [label="X[158] <= 4.5\ngini = 0.498\nsamples = 405\nvalue = [189, 216]"] ;
45 -> 49 ;
50 [label="gini = 0.337\nsamples = 42\nvalue = [33, 9]"] ;
49 -> 50 ;
51 [label="gini = 0.49\nsamples = 363\nvalue = [156, 207]"] ;
49 -> 51 ;
52 [label="X[79] <= 1.322\ngini = 0.328\nsamples = 150\nvalue = [119, 31]"] ;
44 -> 52 ;
53 [label="X[20] <= 14.544\ngini = 0.263\nsamples = 135\nvalue = [114, 21]"] ;
52 -> 53 ;
54 [label="gini = 0.236\nsamples = 132\nvalue = [114, 18]"] ;
53 -> 54 ;
55 [label="gini = 0.0\nsamples = 3\nvalue = [0, 3]"] ;
53 -> 55 ;
56 [label="X[75] <= 1606.471\ngini = 0.444\nsamples = 15\nvalue = [5, 10]"] ;
52 -> 56 ;
57 [label="gini = 0.494\nsamples = 9\nvalue = [5, 4]"] ;
56 -> 57 ;
58 [label="gini = 0.0\nsamples = 6\nvalue = [0, 6]"] ;
56 -> 58 ;
}